<PMML version="3.1">
  <Header copyright=" " />
  <DataDictionary>
    <DataField name="children" optype="continuous" dataType="float" />
    <DataField name="averageAge" optype="continuous" dataType="float" />
    <DataField name="income" optype="continuous" dataType="double" />
    <DataField name="birthday" optype="continuous" dataType="dateTime" />
    <DataField name="marriageDate" optype="continuous" dataType="dateTime" />
    <DataField name="alarmTime" optype="continuous" dataType="dateTime" />
    <DataField name="name" optype="categorical" dataType="string" />
    <DataField name="queue" optype="categorical" dataType="string" />
    <DataField name="list" optype="categorical" dataType="string" />
  </DataDictionary>
  <TransformationDictionary>
    <EventCount name="queuedList" segmentField="list" />
  </TransformationDictionary>
  <BaselineModel functionName="baseline">
    <MiningSchema>
      <MiningField name="children" />
      <MiningField name="averageAge" />
      <MiningField name="income" />
      <MiningField name="birthday" />
      <MiningField name="marriageDate" />
      <MiningField name="alarmTime" />
      <MiningField name="name" />
      <MiningField name="queue" />
      <MiningField name="list" />
      <MiningField name="queuedList" />
    </MiningSchema>
    <LocalTransformations>
      <DerivedField name="sumQueuedList" optype="continuous" dataType="integer">
        <Aggregate field="queuedList" function="sum" />
      </DerivedField>
      <DerivedField name="cntQueuedList" optype="continuous" dataType="integer">
        <Aggregate field="queuedList" function="count" />
      </DerivedField>
      <DerivedField name="avgQueuedList" optype="continuous" dataType="integer">
        <Aggregate field="queuedList" function="average" />
      </DerivedField>
      <DerivedField name="lstQueuedList" optype="continuous" dataType="integer">
        <Aggregate field="queuedList" function="multiset" />
      </DerivedField>
      <DerivedField name="keysQueuedList" optype="continuous" dataType="integer">
        <Aggregate field="queuedList" function="keys" />
      </DerivedField>
      <DerivedField name="minQueuedList" optype="continuous" dataType="integer">
        <Aggregate field="queuedList" function="min" />
      </DerivedField>
      <DerivedField name="maxQueuedList" optype="continuous" dataType="integer">
        <Aggregate field="queuedList" function="max" />
      </DerivedField>
    </LocalTransformations>
    <TestDistributions field="lstQueuedList" testStatistic="zValue" testType="threshold" threshold="1">
      <Baseline>
        <GaussianDistribution mean="20.0" variance="19.8976" />
      </Baseline>
      <Segments>
        <ExplicitSegment field="queue" value="0" />
      </Segments>
    </TestDistributions>
    <TestDistributions field="lstQueuedList" testStatistic="zValue" testType="threshold" threshold="1">
      <Baseline>
        <GaussianDistribution mean="20.0" variance="19.8976" />
      </Baseline>
      <Segments>
        <ExplicitSegment field="queue" value="1" />
      </Segments>
    </TestDistributions>
    <TestDistributions field="lstQueuedList" testStatistic="zValue" testType="threshold" threshold="1">
      <Baseline>
        <GaussianDistribution mean="20.0" variance="19.8976" />
      </Baseline>
      <Segments>
        <ExplicitSegment field="queue" value="10" />
      </Segments>
    </TestDistributions>
    <TestDistributions field="lstQueuedList" testStatistic="zValue" testType="threshold" threshold="1">
      <Baseline>
        <GaussianDistribution mean="20.0" variance="19.8976" />
      </Baseline>
      <Segments>
        <ExplicitSegment field="queue" value="100" />
      </Segments>
    </TestDistributions>
    <TestDistributions field="lstQueuedList" testStatistic="zValue" testType="threshold" threshold="1">
      <Baseline>
        <GaussianDistribution mean="20.0" variance="19.8976" />
      </Baseline>
      <Segments>
        <ExplicitSegment field="queue" value="101" />
      </Segments>
    </TestDistributions>
    <TestDistributions field="lstQueuedList" testStatistic="zValue" testType="threshold" threshold="1">
      <Baseline>
        <GaussianDistribution mean="20.0" variance="19.8976" />
      </Baseline>
      <Segments>
        <ExplicitSegment field="queue" value="102" />
      </Segments>
    </TestDistributions>
    <TestDistributions field="lstQueuedList" testStatistic="zValue" testType="threshold" threshold="1">
      <Baseline>
        <GaussianDistribution mean="20.0" variance="19.8976" />
      </Baseline>
      <Segments>
        <ExplicitSegment field="queue" value="103" />
      </Segments>
    </TestDistributions>
    <TestDistributions field="lstQueuedList" testStatistic="zValue" testType="threshold" threshold="1">
      <Baseline>
        <GaussianDistribution mean="20.0" variance="19.8976" />
      </Baseline>
      <Segments>
        <ExplicitSegment field="queue" value="104" />
      </Segments>
    </TestDistributions>
    <TestDistributions field="lstQueuedList" testStatistic="zValue" testType="threshold" threshold="1">
      <Baseline>
        <GaussianDistribution mean="20.0" variance="19.8976" />
      </Baseline>
      <Segments>
        <ExplicitSegment field="queue" value="105" />
      </Segments>
    </TestDistributions>
    <TestDistributions field="lstQueuedList" testStatistic="zValue" testType="threshold" threshold="1">
      <Baseline>
        <GaussianDistribution mean="20.0" variance="19.8976" />
      </Baseline>
      <Segments>
        <ExplicitSegment field="queue" value="106" />
      </Segments>
    </TestDistributions>
    <TestDistributions field="lstQueuedList" testStatistic="zValue" testType="threshold" threshold="1">
      <Baseline>
        <GaussianDistribution mean="20.0" variance="19.8976" />
      </Baseline>
      <Segments>
        <ExplicitSegment field="queue" value="107" />
      </Segments>
    </TestDistributions>
    <TestDistributions field="lstQueuedList" testStatistic="zValue" testType="threshold" threshold="1">
      <Baseline>
        <GaussianDistribution mean="20.0" variance="19.8976" />
      </Baseline>
      <Segments>
        <ExplicitSegment field="queue" value="108" />
      </Segments>
    </TestDistributions>
    <TestDistributions field="lstQueuedList" testStatistic="zValue" testType="threshold" threshold="1">
      <Baseline>
        <GaussianDistribution mean="20.0" variance="19.8976" />
      </Baseline>
      <Segments>
        <ExplicitSegment field="queue" value="109" />
      </Segments>
    </TestDistributions>
    <TestDistributions field="lstQueuedList" testStatistic="zValue" testType="threshold" threshold="1">
      <Baseline>
        <GaussianDistribution mean="20.0" variance="19.8976" />
      </Baseline>
      <Segments>
        <ExplicitSegment field="queue" value="11" />
      </Segments>
    </TestDistributions>
    <TestDistributions field="lstQueuedList" testStatistic="zValue" testType="threshold" threshold="1">
      <Baseline>
        <GaussianDistribution mean="20.0" variance="19.8976" />
      </Baseline>
      <Segments>
        <ExplicitSegment field="queue" value="110" />
      </Segments>
    </TestDistributions>
    <TestDistributions field="lstQueuedList" testStatistic="zValue" testType="threshold" threshold="1">
      <Baseline>
        <GaussianDistribution mean="20.0" variance="19.8976" />
      </Baseline>
      <Segments>
        <ExplicitSegment field="queue" value="111" />
      </Segments>
    </TestDistributions>
    <TestDistributions field="lstQueuedList" testStatistic="zValue" testType="threshold" threshold="1">
      <Baseline>
        <GaussianDistribution mean="20.0" variance="19.8976" />
      </Baseline>
      <Segments>
        <ExplicitSegment field="queue" value="112" />
      </Segments>
    </TestDistributions>
    <TestDistributions field="lstQueuedList" testStatistic="zValue" testType="threshold" threshold="1">
      <Baseline>
        <GaussianDistribution mean="20.0" variance="19.8976" />
      </Baseline>
      <Segments>
        <ExplicitSegment field="queue" value="113" />
      </Segments>
    </TestDistributions>
    <TestDistributions field="lstQueuedList" testStatistic="zValue" testType="threshold" threshold="1">
      <Baseline>
        <GaussianDistribution mean="20.0" variance="19.8976" />
      </Baseline>
      <Segments>
        <ExplicitSegment field="queue" value="114" />
      </Segments>
    </TestDistributions>
    <TestDistributions field="lstQueuedList" testStatistic="zValue" testType="threshold" threshold="1">
      <Baseline>
        <GaussianDistribution mean="20.0" variance="19.8976" />
      </Baseline>
      <Segments>
        <ExplicitSegment field="queue" value="115" />
      </Segments>
    </TestDistributions>
    <TestDistributions field="lstQueuedList" testStatistic="zValue" testType="threshold" threshold="1">
      <Baseline>
        <GaussianDistribution mean="20.0" variance="19.8976" />
      </Baseline>
      <Segments>
        <ExplicitSegment field="queue" value="116" />
      </Segments>
    </TestDistributions>
    <TestDistributions field="lstQueuedList" testStatistic="zValue" testType="threshold" threshold="1">
      <Baseline>
        <GaussianDistribution mean="20.0" variance="19.8976" />
      </Baseline>
      <Segments>
        <ExplicitSegment field="queue" value="117" />
      </Segments>
    </TestDistributions>
    <TestDistributions field="lstQueuedList" testStatistic="zValue" testType="threshold" threshold="1">
      <Baseline>
        <GaussianDistribution mean="20.0" variance="19.8976" />
      </Baseline>
      <Segments>
        <ExplicitSegment field="queue" value="118" />
      </Segments>
    </TestDistributions>
    <TestDistributions field="lstQueuedList" testStatistic="zValue" testType="threshold" threshold="1">
      <Baseline>
        <GaussianDistribution mean="20.0" variance="19.8976" />
      </Baseline>
      <Segments>
        <ExplicitSegment field="queue" value="119" />
      </Segments>
    </TestDistributions>
    <TestDistributions field="lstQueuedList" testStatistic="zValue" testType="threshold" threshold="1">
      <Baseline>
        <GaussianDistribution mean="20.0" variance="19.8976" />
      </Baseline>
      <Segments>
        <ExplicitSegment field="queue" value="12" />
      </Segments>
    </TestDistributions>
    <TestDistributions field="lstQueuedList" testStatistic="zValue" testType="threshold" threshold="1">
      <Baseline>
        <GaussianDistribution mean="20.0" variance="19.8976" />
      </Baseline>
      <Segments>
        <ExplicitSegment field="queue" value="120" />
      </Segments>
    </TestDistributions>
    <TestDistributions field="lstQueuedList" testStatistic="zValue" testType="threshold" threshold="1">
      <Baseline>
        <GaussianDistribution mean="20.0" variance="19.8976" />
      </Baseline>
      <Segments>
        <ExplicitSegment field="queue" value="121" />
      </Segments>
    </TestDistributions>
    <TestDistributions field="lstQueuedList" testStatistic="zValue" testType="threshold" threshold="1">
      <Baseline>
        <GaussianDistribution mean="20.0" variance="19.8976" />
      </Baseline>
      <Segments>
        <ExplicitSegment field="queue" value="122" />
      </Segments>
    </TestDistributions>
    <TestDistributions field="lstQueuedList" testStatistic="zValue" testType="threshold" threshold="1">
      <Baseline>
        <GaussianDistribution mean="20.0" variance="19.8976" />
      </Baseline>
      <Segments>
        <ExplicitSegment field="queue" value="123" />
      </Segments>
    </TestDistributions>
    <TestDistributions field="lstQueuedList" testStatistic="zValue" testType="threshold" threshold="1">
      <Baseline>
        <GaussianDistribution mean="20.0" variance="19.8976" />
      </Baseline>
      <Segments>
        <ExplicitSegment field="queue" value="124" />
      </Segments>
    </TestDistributions>
    <TestDistributions field="lstQueuedList" testStatistic="zValue" testType="threshold" threshold="1">
      <Baseline>
        <GaussianDistribution mean="20.0" variance="19.8976" />
      </Baseline>
      <Segments>
        <ExplicitSegment field="queue" value="125" />
      </Segments>
    </TestDistributions>
    <TestDistributions field="lstQueuedList" testStatistic="zValue" testType="threshold" threshold="1">
      <Baseline>
        <GaussianDistribution mean="20.0" variance="19.8976" />
      </Baseline>
      <Segments>
        <ExplicitSegment field="queue" value="126" />
      </Segments>
    </TestDistributions>
    <TestDistributions field="lstQueuedList" testStatistic="zValue" testType="threshold" threshold="1">
      <Baseline>
        <GaussianDistribution mean="20.0" variance="19.8976" />
      </Baseline>
      <Segments>
        <ExplicitSegment field="queue" value="127" />
      </Segments>
    </TestDistributions>
    <TestDistributions field="lstQueuedList" testStatistic="zValue" testType="threshold" threshold="1">
      <Baseline>
        <GaussianDistribution mean="20.0" variance="19.8976" />
      </Baseline>
      <Segments>
        <ExplicitSegment field="queue" value="128" />
      </Segments>
    </TestDistributions>
    <TestDistributions field="lstQueuedList" testStatistic="zValue" testType="threshold" threshold="1">
      <Baseline>
        <GaussianDistribution mean="20.0" variance="19.8976" />
      </Baseline>
      <Segments>
        <ExplicitSegment field="queue" value="129" />
      </Segments>
    </TestDistributions>
    <TestDistributions field="lstQueuedList" testStatistic="zValue" testType="threshold" threshold="1">
      <Baseline>
        <GaussianDistribution mean="20.0" variance="19.8976" />
      </Baseline>
      <Segments>
        <ExplicitSegment field="queue" value="13" />
      </Segments>
    </TestDistributions>
    <TestDistributions field="lstQueuedList" testStatistic="zValue" testType="threshold" threshold="1">
      <Baseline>
        <GaussianDistribution mean="20.0" variance="19.8976" />
      </Baseline>
      <Segments>
        <ExplicitSegment field="queue" value="130" />
      </Segments>
    </TestDistributions>
    <TestDistributions field="lstQueuedList" testStatistic="zValue" testType="threshold" threshold="1">
      <Baseline>
        <GaussianDistribution mean="20.0" variance="19.8976" />
      </Baseline>
      <Segments>
        <ExplicitSegment field="queue" value="131" />
      </Segments>
    </TestDistributions>
    <TestDistributions field="lstQueuedList" testStatistic="zValue" testType="threshold" threshold="1">
      <Baseline>
        <GaussianDistribution mean="20.0" variance="19.8976" />
      </Baseline>
      <Segments>
        <ExplicitSegment field="queue" value="132" />
      </Segments>
    </TestDistributions>
    <TestDistributions field="lstQueuedList" testStatistic="zValue" testType="threshold" threshold="1">
      <Baseline>
        <GaussianDistribution mean="20.0" variance="19.8976" />
      </Baseline>
      <Segments>
        <ExplicitSegment field="queue" value="133" />
      </Segments>
    </TestDistributions>
    <TestDistributions field="lstQueuedList" testStatistic="zValue" testType="threshold" threshold="1">
      <Baseline>
        <GaussianDistribution mean="20.0" variance="19.8976" />
      </Baseline>
      <Segments>
        <ExplicitSegment field="queue" value="134" />
      </Segments>
    </TestDistributions>
    <TestDistributions field="lstQueuedList" testStatistic="zValue" testType="threshold" threshold="1">
      <Baseline>
        <GaussianDistribution mean="20.0" variance="19.8976" />
      </Baseline>
      <Segments>
        <ExplicitSegment field="queue" value="135" />
      </Segments>
    </TestDistributions>
    <TestDistributions field="lstQueuedList" testStatistic="zValue" testType="threshold" threshold="1">
      <Baseline>
        <GaussianDistribution mean="20.0" variance="19.8976" />
      </Baseline>
      <Segments>
        <ExplicitSegment field="queue" value="136" />
      </Segments>
    </TestDistributions>
    <TestDistributions field="lstQueuedList" testStatistic="zValue" testType="threshold" threshold="1">
      <Baseline>
        <GaussianDistribution mean="20.0" variance="19.8976" />
      </Baseline>
      <Segments>
        <ExplicitSegment field="queue" value="137" />
      </Segments>
    </TestDistributions>
    <TestDistributions field="lstQueuedList" testStatistic="zValue" testType="threshold" threshold="1">
      <Baseline>
        <GaussianDistribution mean="20.0" variance="19.8976" />
      </Baseline>
      <Segments>
        <ExplicitSegment field="queue" value="138" />
      </Segments>
    </TestDistributions>
    <TestDistributions field="lstQueuedList" testStatistic="zValue" testType="threshold" threshold="1">
      <Baseline>
        <GaussianDistribution mean="20.0" variance="19.8976" />
      </Baseline>
      <Segments>
        <ExplicitSegment field="queue" value="139" />
      </Segments>
    </TestDistributions>
    <TestDistributions field="lstQueuedList" testStatistic="zValue" testType="threshold" threshold="1">
      <Baseline>
        <GaussianDistribution mean="20.0" variance="19.8976" />
      </Baseline>
      <Segments>
        <ExplicitSegment field="queue" value="14" />
      </Segments>
    </TestDistributions>
    <TestDistributions field="lstQueuedList" testStatistic="zValue" testType="threshold" threshold="1">
      <Baseline>
        <GaussianDistribution mean="20.0" variance="19.8976" />
      </Baseline>
      <Segments>
        <ExplicitSegment field="queue" value="140" />
      </Segments>
    </TestDistributions>
    <TestDistributions field="lstQueuedList" testStatistic="zValue" testType="threshold" threshold="1">
      <Baseline>
        <GaussianDistribution mean="20.0" variance="19.8976" />
      </Baseline>
      <Segments>
        <ExplicitSegment field="queue" value="141" />
      </Segments>
    </TestDistributions>
    <TestDistributions field="lstQueuedList" testStatistic="zValue" testType="threshold" threshold="1">
      <Baseline>
        <GaussianDistribution mean="20.0" variance="19.8976" />
      </Baseline>
      <Segments>
        <ExplicitSegment field="queue" value="142" />
      </Segments>
    </TestDistributions>
    <TestDistributions field="lstQueuedList" testStatistic="zValue" testType="threshold" threshold="1">
      <Baseline>
        <GaussianDistribution mean="20.0" variance="19.8976" />
      </Baseline>
      <Segments>
        <ExplicitSegment field="queue" value="143" />
      </Segments>
    </TestDistributions>
    <TestDistributions field="lstQueuedList" testStatistic="zValue" testType="threshold" threshold="1">
      <Baseline>
        <GaussianDistribution mean="20.0" variance="19.8976" />
      </Baseline>
      <Segments>
        <ExplicitSegment field="queue" value="144" />
      </Segments>
    </TestDistributions>
    <TestDistributions field="lstQueuedList" testStatistic="zValue" testType="threshold" threshold="1">
      <Baseline>
        <GaussianDistribution mean="20.0" variance="19.8976" />
      </Baseline>
      <Segments>
        <ExplicitSegment field="queue" value="145" />
      </Segments>
    </TestDistributions>
    <TestDistributions field="lstQueuedList" testStatistic="zValue" testType="threshold" threshold="1">
      <Baseline>
        <GaussianDistribution mean="20.0" variance="19.8976" />
      </Baseline>
      <Segments>
        <ExplicitSegment field="queue" value="146" />
      </Segments>
    </TestDistributions>
    <TestDistributions field="lstQueuedList" testStatistic="zValue" testType="threshold" threshold="1">
      <Baseline>
        <GaussianDistribution mean="20.0" variance="19.8976" />
      </Baseline>
      <Segments>
        <ExplicitSegment field="queue" value="147" />
      </Segments>
    </TestDistributions>
    <TestDistributions field="lstQueuedList" testStatistic="zValue" testType="threshold" threshold="1">
      <Baseline>
        <GaussianDistribution mean="20.0" variance="19.8976" />
      </Baseline>
      <Segments>
        <ExplicitSegment field="queue" value="148" />
      </Segments>
    </TestDistributions>
    <TestDistributions field="lstQueuedList" testStatistic="zValue" testType="threshold" threshold="1">
      <Baseline>
        <GaussianDistribution mean="20.0" variance="19.8976" />
      </Baseline>
      <Segments>
        <ExplicitSegment field="queue" value="149" />
      </Segments>
    </TestDistributions>
    <TestDistributions field="lstQueuedList" testStatistic="zValue" testType="threshold" threshold="1">
      <Baseline>
        <GaussianDistribution mean="20.0" variance="19.8976" />
      </Baseline>
      <Segments>
        <ExplicitSegment field="queue" value="15" />
      </Segments>
    </TestDistributions>
    <TestDistributions field="lstQueuedList" testStatistic="zValue" testType="threshold" threshold="1">
      <Baseline>
        <GaussianDistribution mean="20.0" variance="19.8976" />
      </Baseline>
      <Segments>
        <ExplicitSegment field="queue" value="150" />
      </Segments>
    </TestDistributions>
    <TestDistributions field="lstQueuedList" testStatistic="zValue" testType="threshold" threshold="1">
      <Baseline>
        <GaussianDistribution mean="20.0" variance="19.8976" />
      </Baseline>
      <Segments>
        <ExplicitSegment field="queue" value="151" />
      </Segments>
    </TestDistributions>
    <TestDistributions field="lstQueuedList" testStatistic="zValue" testType="threshold" threshold="1">
      <Baseline>
        <GaussianDistribution mean="20.0" variance="19.8976" />
      </Baseline>
      <Segments>
        <ExplicitSegment field="queue" value="152" />
      </Segments>
    </TestDistributions>
    <TestDistributions field="lstQueuedList" testStatistic="zValue" testType="threshold" threshold="1">
      <Baseline>
        <GaussianDistribution mean="20.0" variance="19.8976" />
      </Baseline>
      <Segments>
        <ExplicitSegment field="queue" value="153" />
      </Segments>
    </TestDistributions>
    <TestDistributions field="lstQueuedList" testStatistic="zValue" testType="threshold" threshold="1">
      <Baseline>
        <GaussianDistribution mean="20.0" variance="19.8976" />
      </Baseline>
      <Segments>
        <ExplicitSegment field="queue" value="154" />
      </Segments>
    </TestDistributions>
    <TestDistributions field="lstQueuedList" testStatistic="zValue" testType="threshold" threshold="1">
      <Baseline>
        <GaussianDistribution mean="20.0" variance="19.8976" />
      </Baseline>
      <Segments>
        <ExplicitSegment field="queue" value="155" />
      </Segments>
    </TestDistributions>
    <TestDistributions field="lstQueuedList" testStatistic="zValue" testType="threshold" threshold="1">
      <Baseline>
        <GaussianDistribution mean="20.0" variance="19.8976" />
      </Baseline>
      <Segments>
        <ExplicitSegment field="queue" value="156" />
      </Segments>
    </TestDistributions>
    <TestDistributions field="lstQueuedList" testStatistic="zValue" testType="threshold" threshold="1">
      <Baseline>
        <GaussianDistribution mean="20.0" variance="19.8976" />
      </Baseline>
      <Segments>
        <ExplicitSegment field="queue" value="157" />
      </Segments>
    </TestDistributions>
    <TestDistributions field="lstQueuedList" testStatistic="zValue" testType="threshold" threshold="1">
      <Baseline>
        <GaussianDistribution mean="20.0" variance="19.8976" />
      </Baseline>
      <Segments>
        <ExplicitSegment field="queue" value="158" />
      </Segments>
    </TestDistributions>
    <TestDistributions field="lstQueuedList" testStatistic="zValue" testType="threshold" threshold="1">
      <Baseline>
        <GaussianDistribution mean="20.0" variance="19.8976" />
      </Baseline>
      <Segments>
        <ExplicitSegment field="queue" value="159" />
      </Segments>
    </TestDistributions>
    <TestDistributions field="lstQueuedList" testStatistic="zValue" testType="threshold" threshold="1">
      <Baseline>
        <GaussianDistribution mean="20.0" variance="19.8976" />
      </Baseline>
      <Segments>
        <ExplicitSegment field="queue" value="16" />
      </Segments>
    </TestDistributions>
    <TestDistributions field="lstQueuedList" testStatistic="zValue" testType="threshold" threshold="1">
      <Baseline>
        <GaussianDistribution mean="20.0" variance="19.8976" />
      </Baseline>
      <Segments>
        <ExplicitSegment field="queue" value="160" />
      </Segments>
    </TestDistributions>
    <TestDistributions field="lstQueuedList" testStatistic="zValue" testType="threshold" threshold="1">
      <Baseline>
        <GaussianDistribution mean="20.0" variance="19.8976" />
      </Baseline>
      <Segments>
        <ExplicitSegment field="queue" value="161" />
      </Segments>
    </TestDistributions>
    <TestDistributions field="lstQueuedList" testStatistic="zValue" testType="threshold" threshold="1">
      <Baseline>
        <GaussianDistribution mean="20.0" variance="19.8976" />
      </Baseline>
      <Segments>
        <ExplicitSegment field="queue" value="162" />
      </Segments>
    </TestDistributions>
    <TestDistributions field="lstQueuedList" testStatistic="zValue" testType="threshold" threshold="1">
      <Baseline>
        <GaussianDistribution mean="20.0" variance="19.8976" />
      </Baseline>
      <Segments>
        <ExplicitSegment field="queue" value="163" />
      </Segments>
    </TestDistributions>
    <TestDistributions field="lstQueuedList" testStatistic="zValue" testType="threshold" threshold="1">
      <Baseline>
        <GaussianDistribution mean="20.0" variance="19.8976" />
      </Baseline>
      <Segments>
        <ExplicitSegment field="queue" value="164" />
      </Segments>
    </TestDistributions>
    <TestDistributions field="lstQueuedList" testStatistic="zValue" testType="threshold" threshold="1">
      <Baseline>
        <GaussianDistribution mean="20.0" variance="19.8976" />
      </Baseline>
      <Segments>
        <ExplicitSegment field="queue" value="165" />
      </Segments>
    </TestDistributions>
    <TestDistributions field="lstQueuedList" testStatistic="zValue" testType="threshold" threshold="1">
      <Baseline>
        <GaussianDistribution mean="20.0" variance="19.8976" />
      </Baseline>
      <Segments>
        <ExplicitSegment field="queue" value="166" />
      </Segments>
    </TestDistributions>
    <TestDistributions field="lstQueuedList" testStatistic="zValue" testType="threshold" threshold="1">
      <Baseline>
        <GaussianDistribution mean="20.0" variance="19.8976" />
      </Baseline>
      <Segments>
        <ExplicitSegment field="queue" value="167" />
      </Segments>
    </TestDistributions>
    <TestDistributions field="lstQueuedList" testStatistic="zValue" testType="threshold" threshold="1">
      <Baseline>
        <GaussianDistribution mean="20.0" variance="19.8976" />
      </Baseline>
      <Segments>
        <ExplicitSegment field="queue" value="168" />
      </Segments>
    </TestDistributions>
    <TestDistributions field="lstQueuedList" testStatistic="zValue" testType="threshold" threshold="1">
      <Baseline>
        <GaussianDistribution mean="20.0" variance="19.8976" />
      </Baseline>
      <Segments>
        <ExplicitSegment field="queue" value="169" />
      </Segments>
    </TestDistributions>
    <TestDistributions field="lstQueuedList" testStatistic="zValue" testType="threshold" threshold="1">
      <Baseline>
        <GaussianDistribution mean="20.0" variance="19.8976" />
      </Baseline>
      <Segments>
        <ExplicitSegment field="queue" value="17" />
      </Segments>
    </TestDistributions>
    <TestDistributions field="lstQueuedList" testStatistic="zValue" testType="threshold" threshold="1">
      <Baseline>
        <GaussianDistribution mean="20.0" variance="19.8976" />
      </Baseline>
      <Segments>
        <ExplicitSegment field="queue" value="170" />
      </Segments>
    </TestDistributions>
    <TestDistributions field="lstQueuedList" testStatistic="zValue" testType="threshold" threshold="1">
      <Baseline>
        <GaussianDistribution mean="20.0" variance="19.8976" />
      </Baseline>
      <Segments>
        <ExplicitSegment field="queue" value="171" />
      </Segments>
    </TestDistributions>
    <TestDistributions field="lstQueuedList" testStatistic="zValue" testType="threshold" threshold="1">
      <Baseline>
        <GaussianDistribution mean="20.0" variance="19.8976" />
      </Baseline>
      <Segments>
        <ExplicitSegment field="queue" value="172" />
      </Segments>
    </TestDistributions>
    <TestDistributions field="lstQueuedList" testStatistic="zValue" testType="threshold" threshold="1">
      <Baseline>
        <GaussianDistribution mean="20.0" variance="19.8976" />
      </Baseline>
      <Segments>
        <ExplicitSegment field="queue" value="173" />
      </Segments>
    </TestDistributions>
    <TestDistributions field="lstQueuedList" testStatistic="zValue" testType="threshold" threshold="1">
      <Baseline>
        <GaussianDistribution mean="20.0" variance="19.8976" />
      </Baseline>
      <Segments>
        <ExplicitSegment field="queue" value="174" />
      </Segments>
    </TestDistributions>
    <TestDistributions field="lstQueuedList" testStatistic="zValue" testType="threshold" threshold="1">
      <Baseline>
        <GaussianDistribution mean="20.0" variance="19.8976" />
      </Baseline>
      <Segments>
        <ExplicitSegment field="queue" value="175" />
      </Segments>
    </TestDistributions>
    <TestDistributions field="lstQueuedList" testStatistic="zValue" testType="threshold" threshold="1">
      <Baseline>
        <GaussianDistribution mean="20.0" variance="19.8976" />
      </Baseline>
      <Segments>
        <ExplicitSegment field="queue" value="176" />
      </Segments>
    </TestDistributions>
    <TestDistributions field="lstQueuedList" testStatistic="zValue" testType="threshold" threshold="1">
      <Baseline>
        <GaussianDistribution mean="20.0" variance="19.8976" />
      </Baseline>
      <Segments>
        <ExplicitSegment field="queue" value="177" />
      </Segments>
    </TestDistributions>
    <TestDistributions field="lstQueuedList" testStatistic="zValue" testType="threshold" threshold="1">
      <Baseline>
        <GaussianDistribution mean="20.0" variance="19.8976" />
      </Baseline>
      <Segments>
        <ExplicitSegment field="queue" value="178" />
      </Segments>
    </TestDistributions>
    <TestDistributions field="lstQueuedList" testStatistic="zValue" testType="threshold" threshold="1">
      <Baseline>
        <GaussianDistribution mean="20.0" variance="19.8976" />
      </Baseline>
      <Segments>
        <ExplicitSegment field="queue" value="179" />
      </Segments>
    </TestDistributions>
    <TestDistributions field="lstQueuedList" testStatistic="zValue" testType="threshold" threshold="1">
      <Baseline>
        <GaussianDistribution mean="20.0" variance="19.8976" />
      </Baseline>
      <Segments>
        <ExplicitSegment field="queue" value="18" />
      </Segments>
    </TestDistributions>
    <TestDistributions field="lstQueuedList" testStatistic="zValue" testType="threshold" threshold="1">
      <Baseline>
        <GaussianDistribution mean="20.0" variance="19.8976" />
      </Baseline>
      <Segments>
        <ExplicitSegment field="queue" value="180" />
      </Segments>
    </TestDistributions>
    <TestDistributions field="lstQueuedList" testStatistic="zValue" testType="threshold" threshold="1">
      <Baseline>
        <GaussianDistribution mean="20.0" variance="19.8976" />
      </Baseline>
      <Segments>
        <ExplicitSegment field="queue" value="181" />
      </Segments>
    </TestDistributions>
    <TestDistributions field="lstQueuedList" testStatistic="zValue" testType="threshold" threshold="1">
      <Baseline>
        <GaussianDistribution mean="20.0" variance="19.8976" />
      </Baseline>
      <Segments>
        <ExplicitSegment field="queue" value="182" />
      </Segments>
    </TestDistributions>
    <TestDistributions field="lstQueuedList" testStatistic="zValue" testType="threshold" threshold="1">
      <Baseline>
        <GaussianDistribution mean="20.0" variance="19.8976" />
      </Baseline>
      <Segments>
        <ExplicitSegment field="queue" value="183" />
      </Segments>
    </TestDistributions>
    <TestDistributions field="lstQueuedList" testStatistic="zValue" testType="threshold" threshold="1">
      <Baseline>
        <GaussianDistribution mean="20.0" variance="19.8976" />
      </Baseline>
      <Segments>
        <ExplicitSegment field="queue" value="184" />
      </Segments>
    </TestDistributions>
    <TestDistributions field="lstQueuedList" testStatistic="zValue" testType="threshold" threshold="1">
      <Baseline>
        <GaussianDistribution mean="20.0" variance="19.8976" />
      </Baseline>
      <Segments>
        <ExplicitSegment field="queue" value="185" />
      </Segments>
    </TestDistributions>
    <TestDistributions field="lstQueuedList" testStatistic="zValue" testType="threshold" threshold="1">
      <Baseline>
        <GaussianDistribution mean="20.0" variance="19.8976" />
      </Baseline>
      <Segments>
        <ExplicitSegment field="queue" value="186" />
      </Segments>
    </TestDistributions>
    <TestDistributions field="lstQueuedList" testStatistic="zValue" testType="threshold" threshold="1">
      <Baseline>
        <GaussianDistribution mean="20.0" variance="19.8976" />
      </Baseline>
      <Segments>
        <ExplicitSegment field="queue" value="187" />
      </Segments>
    </TestDistributions>
    <TestDistributions field="lstQueuedList" testStatistic="zValue" testType="threshold" threshold="1">
      <Baseline>
        <GaussianDistribution mean="20.0" variance="19.8976" />
      </Baseline>
      <Segments>
        <ExplicitSegment field="queue" value="188" />
      </Segments>
    </TestDistributions>
    <TestDistributions field="lstQueuedList" testStatistic="zValue" testType="threshold" threshold="1">
      <Baseline>
        <GaussianDistribution mean="20.0" variance="19.8976" />
      </Baseline>
      <Segments>
        <ExplicitSegment field="queue" value="189" />
      </Segments>
    </TestDistributions>
    <TestDistributions field="lstQueuedList" testStatistic="zValue" testType="threshold" threshold="1">
      <Baseline>
        <GaussianDistribution mean="20.0" variance="19.8976" />
      </Baseline>
      <Segments>
        <ExplicitSegment field="queue" value="19" />
      </Segments>
    </TestDistributions>
    <TestDistributions field="lstQueuedList" testStatistic="zValue" testType="threshold" threshold="1">
      <Baseline>
        <GaussianDistribution mean="20.0" variance="19.8976" />
      </Baseline>
      <Segments>
        <ExplicitSegment field="queue" value="190" />
      </Segments>
    </TestDistributions>
    <TestDistributions field="lstQueuedList" testStatistic="zValue" testType="threshold" threshold="1">
      <Baseline>
        <GaussianDistribution mean="20.0" variance="19.8976" />
      </Baseline>
      <Segments>
        <ExplicitSegment field="queue" value="191" />
      </Segments>
    </TestDistributions>
    <TestDistributions field="lstQueuedList" testStatistic="zValue" testType="threshold" threshold="1">
      <Baseline>
        <GaussianDistribution mean="20.0" variance="19.8976" />
      </Baseline>
      <Segments>
        <ExplicitSegment field="queue" value="192" />
      </Segments>
    </TestDistributions>
    <TestDistributions field="lstQueuedList" testStatistic="zValue" testType="threshold" threshold="1">
      <Baseline>
        <GaussianDistribution mean="20.0" variance="19.8976" />
      </Baseline>
      <Segments>
        <ExplicitSegment field="queue" value="193" />
      </Segments>
    </TestDistributions>
    <TestDistributions field="lstQueuedList" testStatistic="zValue" testType="threshold" threshold="1">
      <Baseline>
        <GaussianDistribution mean="20.0" variance="19.8976" />
      </Baseline>
      <Segments>
        <ExplicitSegment field="queue" value="194" />
      </Segments>
    </TestDistributions>
    <TestDistributions field="lstQueuedList" testStatistic="zValue" testType="threshold" threshold="1">
      <Baseline>
        <GaussianDistribution mean="20.0" variance="19.8976" />
      </Baseline>
      <Segments>
        <ExplicitSegment field="queue" value="195" />
      </Segments>
    </TestDistributions>
    <TestDistributions field="lstQueuedList" testStatistic="zValue" testType="threshold" threshold="1">
      <Baseline>
        <GaussianDistribution mean="20.0" variance="19.8976" />
      </Baseline>
      <Segments>
        <ExplicitSegment field="queue" value="196" />
      </Segments>
    </TestDistributions>
    <TestDistributions field="lstQueuedList" testStatistic="zValue" testType="threshold" threshold="1">
      <Baseline>
        <GaussianDistribution mean="20.0" variance="19.8976" />
      </Baseline>
      <Segments>
        <ExplicitSegment field="queue" value="197" />
      </Segments>
    </TestDistributions>
    <TestDistributions field="lstQueuedList" testStatistic="zValue" testType="threshold" threshold="1">
      <Baseline>
        <GaussianDistribution mean="20.0" variance="19.8976" />
      </Baseline>
      <Segments>
        <ExplicitSegment field="queue" value="198" />
      </Segments>
    </TestDistributions>
    <TestDistributions field="lstQueuedList" testStatistic="zValue" testType="threshold" threshold="1">
      <Baseline>
        <GaussianDistribution mean="20.0" variance="19.8976" />
      </Baseline>
      <Segments>
        <ExplicitSegment field="queue" value="199" />
      </Segments>
    </TestDistributions>
    <TestDistributions field="lstQueuedList" testStatistic="zValue" testType="threshold" threshold="1">
      <Baseline>
        <GaussianDistribution mean="20.0" variance="19.8976" />
      </Baseline>
      <Segments>
        <ExplicitSegment field="queue" value="2" />
      </Segments>
    </TestDistributions>
    <TestDistributions field="lstQueuedList" testStatistic="zValue" testType="threshold" threshold="1">
      <Baseline>
        <GaussianDistribution mean="20.0" variance="19.8976" />
      </Baseline>
      <Segments>
        <ExplicitSegment field="queue" value="20" />
      </Segments>
    </TestDistributions>
    <TestDistributions field="lstQueuedList" testStatistic="zValue" testType="threshold" threshold="1">
      <Baseline>
        <GaussianDistribution mean="20.0" variance="19.8976" />
      </Baseline>
      <Segments>
        <ExplicitSegment field="queue" value="200" />
      </Segments>
    </TestDistributions>
    <TestDistributions field="lstQueuedList" testStatistic="zValue" testType="threshold" threshold="1">
      <Baseline>
        <GaussianDistribution mean="20.0" variance="19.8976" />
      </Baseline>
      <Segments>
        <ExplicitSegment field="queue" value="201" />
      </Segments>
    </TestDistributions>
    <TestDistributions field="lstQueuedList" testStatistic="zValue" testType="threshold" threshold="1">
      <Baseline>
        <GaussianDistribution mean="20.0" variance="19.8976" />
      </Baseline>
      <Segments>
        <ExplicitSegment field="queue" value="202" />
      </Segments>
    </TestDistributions>
    <TestDistributions field="lstQueuedList" testStatistic="zValue" testType="threshold" threshold="1">
      <Baseline>
        <GaussianDistribution mean="20.0" variance="19.8976" />
      </Baseline>
      <Segments>
        <ExplicitSegment field="queue" value="203" />
      </Segments>
    </TestDistributions>
    <TestDistributions field="lstQueuedList" testStatistic="zValue" testType="threshold" threshold="1">
      <Baseline>
        <GaussianDistribution mean="20.0" variance="19.8976" />
      </Baseline>
      <Segments>
        <ExplicitSegment field="queue" value="204" />
      </Segments>
    </TestDistributions>
    <TestDistributions field="lstQueuedList" testStatistic="zValue" testType="threshold" threshold="1">
      <Baseline>
        <GaussianDistribution mean="20.0" variance="19.8976" />
      </Baseline>
      <Segments>
        <ExplicitSegment field="queue" value="205" />
      </Segments>
    </TestDistributions>
    <TestDistributions field="lstQueuedList" testStatistic="zValue" testType="threshold" threshold="1">
      <Baseline>
        <GaussianDistribution mean="20.0" variance="19.8976" />
      </Baseline>
      <Segments>
        <ExplicitSegment field="queue" value="206" />
      </Segments>
    </TestDistributions>
    <TestDistributions field="lstQueuedList" testStatistic="zValue" testType="threshold" threshold="1">
      <Baseline>
        <GaussianDistribution mean="20.0" variance="19.8976" />
      </Baseline>
      <Segments>
        <ExplicitSegment field="queue" value="207" />
      </Segments>
    </TestDistributions>
    <TestDistributions field="lstQueuedList" testStatistic="zValue" testType="threshold" threshold="1">
      <Baseline>
        <GaussianDistribution mean="20.0" variance="19.8976" />
      </Baseline>
      <Segments>
        <ExplicitSegment field="queue" value="208" />
      </Segments>
    </TestDistributions>
    <TestDistributions field="lstQueuedList" testStatistic="zValue" testType="threshold" threshold="1">
      <Baseline>
        <GaussianDistribution mean="20.0" variance="19.8976" />
      </Baseline>
      <Segments>
        <ExplicitSegment field="queue" value="209" />
      </Segments>
    </TestDistributions>
    <TestDistributions field="lstQueuedList" testStatistic="zValue" testType="threshold" threshold="1">
      <Baseline>
        <GaussianDistribution mean="20.0" variance="19.8976" />
      </Baseline>
      <Segments>
        <ExplicitSegment field="queue" value="21" />
      </Segments>
    </TestDistributions>
    <TestDistributions field="lstQueuedList" testStatistic="zValue" testType="threshold" threshold="1">
      <Baseline>
        <GaussianDistribution mean="20.0" variance="19.8976" />
      </Baseline>
      <Segments>
        <ExplicitSegment field="queue" value="210" />
      </Segments>
    </TestDistributions>
    <TestDistributions field="lstQueuedList" testStatistic="zValue" testType="threshold" threshold="1">
      <Baseline>
        <GaussianDistribution mean="20.0" variance="19.8976" />
      </Baseline>
      <Segments>
        <ExplicitSegment field="queue" value="211" />
      </Segments>
    </TestDistributions>
    <TestDistributions field="lstQueuedList" testStatistic="zValue" testType="threshold" threshold="1">
      <Baseline>
        <GaussianDistribution mean="20.0" variance="19.8976" />
      </Baseline>
      <Segments>
        <ExplicitSegment field="queue" value="212" />
      </Segments>
    </TestDistributions>
    <TestDistributions field="lstQueuedList" testStatistic="zValue" testType="threshold" threshold="1">
      <Baseline>
        <GaussianDistribution mean="20.0" variance="19.8976" />
      </Baseline>
      <Segments>
        <ExplicitSegment field="queue" value="213" />
      </Segments>
    </TestDistributions>
    <TestDistributions field="lstQueuedList" testStatistic="zValue" testType="threshold" threshold="1">
      <Baseline>
        <GaussianDistribution mean="20.0" variance="19.8976" />
      </Baseline>
      <Segments>
        <ExplicitSegment field="queue" value="214" />
      </Segments>
    </TestDistributions>
    <TestDistributions field="lstQueuedList" testStatistic="zValue" testType="threshold" threshold="1">
      <Baseline>
        <GaussianDistribution mean="20.0" variance="19.8976" />
      </Baseline>
      <Segments>
        <ExplicitSegment field="queue" value="215" />
      </Segments>
    </TestDistributions>
    <TestDistributions field="lstQueuedList" testStatistic="zValue" testType="threshold" threshold="1">
      <Baseline>
        <GaussianDistribution mean="20.0" variance="19.8976" />
      </Baseline>
      <Segments>
        <ExplicitSegment field="queue" value="216" />
      </Segments>
    </TestDistributions>
    <TestDistributions field="lstQueuedList" testStatistic="zValue" testType="threshold" threshold="1">
      <Baseline>
        <GaussianDistribution mean="20.0" variance="19.8976" />
      </Baseline>
      <Segments>
        <ExplicitSegment field="queue" value="217" />
      </Segments>
    </TestDistributions>
    <TestDistributions field="lstQueuedList" testStatistic="zValue" testType="threshold" threshold="1">
      <Baseline>
        <GaussianDistribution mean="20.0" variance="19.8976" />
      </Baseline>
      <Segments>
        <ExplicitSegment field="queue" value="218" />
      </Segments>
    </TestDistributions>
    <TestDistributions field="lstQueuedList" testStatistic="zValue" testType="threshold" threshold="1">
      <Baseline>
        <GaussianDistribution mean="20.0" variance="19.8976" />
      </Baseline>
      <Segments>
        <ExplicitSegment field="queue" value="219" />
      </Segments>
    </TestDistributions>
    <TestDistributions field="lstQueuedList" testStatistic="zValue" testType="threshold" threshold="1">
      <Baseline>
        <GaussianDistribution mean="20.0" variance="19.8976" />
      </Baseline>
      <Segments>
        <ExplicitSegment field="queue" value="22" />
      </Segments>
    </TestDistributions>
    <TestDistributions field="lstQueuedList" testStatistic="zValue" testType="threshold" threshold="1">
      <Baseline>
        <GaussianDistribution mean="20.0" variance="19.8976" />
      </Baseline>
      <Segments>
        <ExplicitSegment field="queue" value="220" />
      </Segments>
    </TestDistributions>
    <TestDistributions field="lstQueuedList" testStatistic="zValue" testType="threshold" threshold="1">
      <Baseline>
        <GaussianDistribution mean="20.0" variance="19.8976" />
      </Baseline>
      <Segments>
        <ExplicitSegment field="queue" value="221" />
      </Segments>
    </TestDistributions>
    <TestDistributions field="lstQueuedList" testStatistic="zValue" testType="threshold" threshold="1">
      <Baseline>
        <GaussianDistribution mean="20.0" variance="19.8976" />
      </Baseline>
      <Segments>
        <ExplicitSegment field="queue" value="222" />
      </Segments>
    </TestDistributions>
    <TestDistributions field="lstQueuedList" testStatistic="zValue" testType="threshold" threshold="1">
      <Baseline>
        <GaussianDistribution mean="20.0" variance="19.8976" />
      </Baseline>
      <Segments>
        <ExplicitSegment field="queue" value="223" />
      </Segments>
    </TestDistributions>
    <TestDistributions field="lstQueuedList" testStatistic="zValue" testType="threshold" threshold="1">
      <Baseline>
        <GaussianDistribution mean="20.0" variance="19.8976" />
      </Baseline>
      <Segments>
        <ExplicitSegment field="queue" value="224" />
      </Segments>
    </TestDistributions>
    <TestDistributions field="lstQueuedList" testStatistic="zValue" testType="threshold" threshold="1">
      <Baseline>
        <GaussianDistribution mean="20.0" variance="19.8976" />
      </Baseline>
      <Segments>
        <ExplicitSegment field="queue" value="225" />
      </Segments>
    </TestDistributions>
    <TestDistributions field="lstQueuedList" testStatistic="zValue" testType="threshold" threshold="1">
      <Baseline>
        <GaussianDistribution mean="20.0" variance="19.8976" />
      </Baseline>
      <Segments>
        <ExplicitSegment field="queue" value="226" />
      </Segments>
    </TestDistributions>
    <TestDistributions field="lstQueuedList" testStatistic="zValue" testType="threshold" threshold="1">
      <Baseline>
        <GaussianDistribution mean="20.0" variance="19.8976" />
      </Baseline>
      <Segments>
        <ExplicitSegment field="queue" value="227" />
      </Segments>
    </TestDistributions>
    <TestDistributions field="lstQueuedList" testStatistic="zValue" testType="threshold" threshold="1">
      <Baseline>
        <GaussianDistribution mean="20.0" variance="19.8976" />
      </Baseline>
      <Segments>
        <ExplicitSegment field="queue" value="228" />
      </Segments>
    </TestDistributions>
    <TestDistributions field="lstQueuedList" testStatistic="zValue" testType="threshold" threshold="1">
      <Baseline>
        <GaussianDistribution mean="20.0" variance="19.8976" />
      </Baseline>
      <Segments>
        <ExplicitSegment field="queue" value="229" />
      </Segments>
    </TestDistributions>
    <TestDistributions field="lstQueuedList" testStatistic="zValue" testType="threshold" threshold="1">
      <Baseline>
        <GaussianDistribution mean="20.0" variance="19.8976" />
      </Baseline>
      <Segments>
        <ExplicitSegment field="queue" value="23" />
      </Segments>
    </TestDistributions>
    <TestDistributions field="lstQueuedList" testStatistic="zValue" testType="threshold" threshold="1">
      <Baseline>
        <GaussianDistribution mean="20.0" variance="19.8976" />
      </Baseline>
      <Segments>
        <ExplicitSegment field="queue" value="230" />
      </Segments>
    </TestDistributions>
    <TestDistributions field="lstQueuedList" testStatistic="zValue" testType="threshold" threshold="1">
      <Baseline>
        <GaussianDistribution mean="20.0" variance="19.8976" />
      </Baseline>
      <Segments>
        <ExplicitSegment field="queue" value="231" />
      </Segments>
    </TestDistributions>
    <TestDistributions field="lstQueuedList" testStatistic="zValue" testType="threshold" threshold="1">
      <Baseline>
        <GaussianDistribution mean="20.0" variance="19.8976" />
      </Baseline>
      <Segments>
        <ExplicitSegment field="queue" value="232" />
      </Segments>
    </TestDistributions>
    <TestDistributions field="lstQueuedList" testStatistic="zValue" testType="threshold" threshold="1">
      <Baseline>
        <GaussianDistribution mean="20.0" variance="19.8976" />
      </Baseline>
      <Segments>
        <ExplicitSegment field="queue" value="233" />
      </Segments>
    </TestDistributions>
    <TestDistributions field="lstQueuedList" testStatistic="zValue" testType="threshold" threshold="1">
      <Baseline>
        <GaussianDistribution mean="20.0" variance="19.8976" />
      </Baseline>
      <Segments>
        <ExplicitSegment field="queue" value="234" />
      </Segments>
    </TestDistributions>
    <TestDistributions field="lstQueuedList" testStatistic="zValue" testType="threshold" threshold="1">
      <Baseline>
        <GaussianDistribution mean="20.0" variance="19.8976" />
      </Baseline>
      <Segments>
        <ExplicitSegment field="queue" value="235" />
      </Segments>
    </TestDistributions>
    <TestDistributions field="lstQueuedList" testStatistic="zValue" testType="threshold" threshold="1">
      <Baseline>
        <GaussianDistribution mean="20.0" variance="19.8976" />
      </Baseline>
      <Segments>
        <ExplicitSegment field="queue" value="236" />
      </Segments>
    </TestDistributions>
    <TestDistributions field="lstQueuedList" testStatistic="zValue" testType="threshold" threshold="1">
      <Baseline>
        <GaussianDistribution mean="20.0" variance="19.8976" />
      </Baseline>
      <Segments>
        <ExplicitSegment field="queue" value="237" />
      </Segments>
    </TestDistributions>
    <TestDistributions field="lstQueuedList" testStatistic="zValue" testType="threshold" threshold="1">
      <Baseline>
        <GaussianDistribution mean="20.0" variance="19.8976" />
      </Baseline>
      <Segments>
        <ExplicitSegment field="queue" value="238" />
      </Segments>
    </TestDistributions>
    <TestDistributions field="lstQueuedList" testStatistic="zValue" testType="threshold" threshold="1">
      <Baseline>
        <GaussianDistribution mean="20.0" variance="19.8976" />
      </Baseline>
      <Segments>
        <ExplicitSegment field="queue" value="239" />
      </Segments>
    </TestDistributions>
    <TestDistributions field="lstQueuedList" testStatistic="zValue" testType="threshold" threshold="1">
      <Baseline>
        <GaussianDistribution mean="20.0" variance="19.8976" />
      </Baseline>
      <Segments>
        <ExplicitSegment field="queue" value="24" />
      </Segments>
    </TestDistributions>
    <TestDistributions field="lstQueuedList" testStatistic="zValue" testType="threshold" threshold="1">
      <Baseline>
        <GaussianDistribution mean="20.0" variance="19.8976" />
      </Baseline>
      <Segments>
        <ExplicitSegment field="queue" value="240" />
      </Segments>
    </TestDistributions>
    <TestDistributions field="lstQueuedList" testStatistic="zValue" testType="threshold" threshold="1">
      <Baseline>
        <GaussianDistribution mean="20.0" variance="19.8976" />
      </Baseline>
      <Segments>
        <ExplicitSegment field="queue" value="241" />
      </Segments>
    </TestDistributions>
    <TestDistributions field="lstQueuedList" testStatistic="zValue" testType="threshold" threshold="1">
      <Baseline>
        <GaussianDistribution mean="20.0" variance="19.8976" />
      </Baseline>
      <Segments>
        <ExplicitSegment field="queue" value="242" />
      </Segments>
    </TestDistributions>
    <TestDistributions field="lstQueuedList" testStatistic="zValue" testType="threshold" threshold="1">
      <Baseline>
        <GaussianDistribution mean="20.0" variance="19.8976" />
      </Baseline>
      <Segments>
        <ExplicitSegment field="queue" value="243" />
      </Segments>
    </TestDistributions>
    <TestDistributions field="lstQueuedList" testStatistic="zValue" testType="threshold" threshold="1">
      <Baseline>
        <GaussianDistribution mean="20.0" variance="19.8976" />
      </Baseline>
      <Segments>
        <ExplicitSegment field="queue" value="244" />
      </Segments>
    </TestDistributions>
    <TestDistributions field="lstQueuedList" testStatistic="zValue" testType="threshold" threshold="1">
      <Baseline>
        <GaussianDistribution mean="20.0" variance="19.8976" />
      </Baseline>
      <Segments>
        <ExplicitSegment field="queue" value="245" />
      </Segments>
    </TestDistributions>
    <TestDistributions field="lstQueuedList" testStatistic="zValue" testType="threshold" threshold="1">
      <Baseline>
        <GaussianDistribution mean="20.0" variance="19.8976" />
      </Baseline>
      <Segments>
        <ExplicitSegment field="queue" value="246" />
      </Segments>
    </TestDistributions>
    <TestDistributions field="lstQueuedList" testStatistic="zValue" testType="threshold" threshold="1">
      <Baseline>
        <GaussianDistribution mean="20.0" variance="19.8976" />
      </Baseline>
      <Segments>
        <ExplicitSegment field="queue" value="247" />
      </Segments>
    </TestDistributions>
    <TestDistributions field="lstQueuedList" testStatistic="zValue" testType="threshold" threshold="1">
      <Baseline>
        <GaussianDistribution mean="20.0" variance="19.8976" />
      </Baseline>
      <Segments>
        <ExplicitSegment field="queue" value="248" />
      </Segments>
    </TestDistributions>
    <TestDistributions field="lstQueuedList" testStatistic="zValue" testType="threshold" threshold="1">
      <Baseline>
        <GaussianDistribution mean="20.0" variance="19.8976" />
      </Baseline>
      <Segments>
        <ExplicitSegment field="queue" value="249" />
      </Segments>
    </TestDistributions>
    <TestDistributions field="lstQueuedList" testStatistic="zValue" testType="threshold" threshold="1">
      <Baseline>
        <GaussianDistribution mean="20.0" variance="19.8976" />
      </Baseline>
      <Segments>
        <ExplicitSegment field="queue" value="25" />
      </Segments>
    </TestDistributions>
    <TestDistributions field="lstQueuedList" testStatistic="zValue" testType="threshold" threshold="1">
      <Baseline>
        <GaussianDistribution mean="20.0" variance="19.8976" />
      </Baseline>
      <Segments>
        <ExplicitSegment field="queue" value="250" />
      </Segments>
    </TestDistributions>
    <TestDistributions field="lstQueuedList" testStatistic="zValue" testType="threshold" threshold="1">
      <Baseline>
        <GaussianDistribution mean="20.0" variance="19.8976" />
      </Baseline>
      <Segments>
        <ExplicitSegment field="queue" value="251" />
      </Segments>
    </TestDistributions>
    <TestDistributions field="lstQueuedList" testStatistic="zValue" testType="threshold" threshold="1">
      <Baseline>
        <GaussianDistribution mean="20.0" variance="19.8976" />
      </Baseline>
      <Segments>
        <ExplicitSegment field="queue" value="252" />
      </Segments>
    </TestDistributions>
    <TestDistributions field="lstQueuedList" testStatistic="zValue" testType="threshold" threshold="1">
      <Baseline>
        <GaussianDistribution mean="20.0" variance="19.8976" />
      </Baseline>
      <Segments>
        <ExplicitSegment field="queue" value="253" />
      </Segments>
    </TestDistributions>
    <TestDistributions field="lstQueuedList" testStatistic="zValue" testType="threshold" threshold="1">
      <Baseline>
        <GaussianDistribution mean="20.0" variance="19.8976" />
      </Baseline>
      <Segments>
        <ExplicitSegment field="queue" value="254" />
      </Segments>
    </TestDistributions>
    <TestDistributions field="lstQueuedList" testStatistic="zValue" testType="threshold" threshold="1">
      <Baseline>
        <GaussianDistribution mean="20.0" variance="19.8976" />
      </Baseline>
      <Segments>
        <ExplicitSegment field="queue" value="255" />
      </Segments>
    </TestDistributions>
    <TestDistributions field="lstQueuedList" testStatistic="zValue" testType="threshold" threshold="1">
      <Baseline>
        <GaussianDistribution mean="20.0" variance="19.8976" />
      </Baseline>
      <Segments>
        <ExplicitSegment field="queue" value="256" />
      </Segments>
    </TestDistributions>
    <TestDistributions field="lstQueuedList" testStatistic="zValue" testType="threshold" threshold="1">
      <Baseline>
        <GaussianDistribution mean="20.0" variance="19.8976" />
      </Baseline>
      <Segments>
        <ExplicitSegment field="queue" value="257" />
      </Segments>
    </TestDistributions>
    <TestDistributions field="lstQueuedList" testStatistic="zValue" testType="threshold" threshold="1">
      <Baseline>
        <GaussianDistribution mean="20.0" variance="19.8976" />
      </Baseline>
      <Segments>
        <ExplicitSegment field="queue" value="258" />
      </Segments>
    </TestDistributions>
    <TestDistributions field="lstQueuedList" testStatistic="zValue" testType="threshold" threshold="1">
      <Baseline>
        <GaussianDistribution mean="20.0" variance="19.8976" />
      </Baseline>
      <Segments>
        <ExplicitSegment field="queue" value="259" />
      </Segments>
    </TestDistributions>
    <TestDistributions field="lstQueuedList" testStatistic="zValue" testType="threshold" threshold="1">
      <Baseline>
        <GaussianDistribution mean="20.0" variance="19.8976" />
      </Baseline>
      <Segments>
        <ExplicitSegment field="queue" value="26" />
      </Segments>
    </TestDistributions>
    <TestDistributions field="lstQueuedList" testStatistic="zValue" testType="threshold" threshold="1">
      <Baseline>
        <GaussianDistribution mean="20.0" variance="19.8976" />
      </Baseline>
      <Segments>
        <ExplicitSegment field="queue" value="260" />
      </Segments>
    </TestDistributions>
    <TestDistributions field="lstQueuedList" testStatistic="zValue" testType="threshold" threshold="1">
      <Baseline>
        <GaussianDistribution mean="20.0" variance="19.8976" />
      </Baseline>
      <Segments>
        <ExplicitSegment field="queue" value="261" />
      </Segments>
    </TestDistributions>
    <TestDistributions field="lstQueuedList" testStatistic="zValue" testType="threshold" threshold="1">
      <Baseline>
        <GaussianDistribution mean="20.0" variance="19.8976" />
      </Baseline>
      <Segments>
        <ExplicitSegment field="queue" value="262" />
      </Segments>
    </TestDistributions>
    <TestDistributions field="lstQueuedList" testStatistic="zValue" testType="threshold" threshold="1">
      <Baseline>
        <GaussianDistribution mean="20.0" variance="19.8976" />
      </Baseline>
      <Segments>
        <ExplicitSegment field="queue" value="263" />
      </Segments>
    </TestDistributions>
    <TestDistributions field="lstQueuedList" testStatistic="zValue" testType="threshold" threshold="1">
      <Baseline>
        <GaussianDistribution mean="20.0" variance="19.8976" />
      </Baseline>
      <Segments>
        <ExplicitSegment field="queue" value="264" />
      </Segments>
    </TestDistributions>
    <TestDistributions field="lstQueuedList" testStatistic="zValue" testType="threshold" threshold="1">
      <Baseline>
        <GaussianDistribution mean="20.0" variance="19.8976" />
      </Baseline>
      <Segments>
        <ExplicitSegment field="queue" value="265" />
      </Segments>
    </TestDistributions>
    <TestDistributions field="lstQueuedList" testStatistic="zValue" testType="threshold" threshold="1">
      <Baseline>
        <GaussianDistribution mean="20.0" variance="19.8976" />
      </Baseline>
      <Segments>
        <ExplicitSegment field="queue" value="266" />
      </Segments>
    </TestDistributions>
    <TestDistributions field="lstQueuedList" testStatistic="zValue" testType="threshold" threshold="1">
      <Baseline>
        <GaussianDistribution mean="20.0" variance="19.8976" />
      </Baseline>
      <Segments>
        <ExplicitSegment field="queue" value="267" />
      </Segments>
    </TestDistributions>
    <TestDistributions field="lstQueuedList" testStatistic="zValue" testType="threshold" threshold="1">
      <Baseline>
        <GaussianDistribution mean="20.0" variance="19.8976" />
      </Baseline>
      <Segments>
        <ExplicitSegment field="queue" value="268" />
      </Segments>
    </TestDistributions>
    <TestDistributions field="lstQueuedList" testStatistic="zValue" testType="threshold" threshold="1">
      <Baseline>
        <GaussianDistribution mean="20.0" variance="19.8976" />
      </Baseline>
      <Segments>
        <ExplicitSegment field="queue" value="269" />
      </Segments>
    </TestDistributions>
    <TestDistributions field="lstQueuedList" testStatistic="zValue" testType="threshold" threshold="1">
      <Baseline>
        <GaussianDistribution mean="20.0" variance="19.8976" />
      </Baseline>
      <Segments>
        <ExplicitSegment field="queue" value="27" />
      </Segments>
    </TestDistributions>
    <TestDistributions field="lstQueuedList" testStatistic="zValue" testType="threshold" threshold="1">
      <Baseline>
        <GaussianDistribution mean="20.0" variance="19.8976" />
      </Baseline>
      <Segments>
        <ExplicitSegment field="queue" value="270" />
      </Segments>
    </TestDistributions>
    <TestDistributions field="lstQueuedList" testStatistic="zValue" testType="threshold" threshold="1">
      <Baseline>
        <GaussianDistribution mean="20.0" variance="19.8976" />
      </Baseline>
      <Segments>
        <ExplicitSegment field="queue" value="271" />
      </Segments>
    </TestDistributions>
    <TestDistributions field="lstQueuedList" testStatistic="zValue" testType="threshold" threshold="1">
      <Baseline>
        <GaussianDistribution mean="20.0" variance="19.8976" />
      </Baseline>
      <Segments>
        <ExplicitSegment field="queue" value="272" />
      </Segments>
    </TestDistributions>
    <TestDistributions field="lstQueuedList" testStatistic="zValue" testType="threshold" threshold="1">
      <Baseline>
        <GaussianDistribution mean="20.0" variance="19.8976" />
      </Baseline>
      <Segments>
        <ExplicitSegment field="queue" value="273" />
      </Segments>
    </TestDistributions>
    <TestDistributions field="lstQueuedList" testStatistic="zValue" testType="threshold" threshold="1">
      <Baseline>
        <GaussianDistribution mean="20.0" variance="19.8976" />
      </Baseline>
      <Segments>
        <ExplicitSegment field="queue" value="274" />
      </Segments>
    </TestDistributions>
    <TestDistributions field="lstQueuedList" testStatistic="zValue" testType="threshold" threshold="1">
      <Baseline>
        <GaussianDistribution mean="20.0" variance="19.8976" />
      </Baseline>
      <Segments>
        <ExplicitSegment field="queue" value="275" />
      </Segments>
    </TestDistributions>
    <TestDistributions field="lstQueuedList" testStatistic="zValue" testType="threshold" threshold="1">
      <Baseline>
        <GaussianDistribution mean="20.0" variance="19.8976" />
      </Baseline>
      <Segments>
        <ExplicitSegment field="queue" value="276" />
      </Segments>
    </TestDistributions>
    <TestDistributions field="lstQueuedList" testStatistic="zValue" testType="threshold" threshold="1">
      <Baseline>
        <GaussianDistribution mean="20.0" variance="19.8976" />
      </Baseline>
      <Segments>
        <ExplicitSegment field="queue" value="277" />
      </Segments>
    </TestDistributions>
    <TestDistributions field="lstQueuedList" testStatistic="zValue" testType="threshold" threshold="1">
      <Baseline>
        <GaussianDistribution mean="20.0" variance="19.8976" />
      </Baseline>
      <Segments>
        <ExplicitSegment field="queue" value="278" />
      </Segments>
    </TestDistributions>
    <TestDistributions field="lstQueuedList" testStatistic="zValue" testType="threshold" threshold="1">
      <Baseline>
        <GaussianDistribution mean="20.0" variance="19.8976" />
      </Baseline>
      <Segments>
        <ExplicitSegment field="queue" value="279" />
      </Segments>
    </TestDistributions>
    <TestDistributions field="lstQueuedList" testStatistic="zValue" testType="threshold" threshold="1">
      <Baseline>
        <GaussianDistribution mean="20.0" variance="19.8976" />
      </Baseline>
      <Segments>
        <ExplicitSegment field="queue" value="28" />
      </Segments>
    </TestDistributions>
    <TestDistributions field="lstQueuedList" testStatistic="zValue" testType="threshold" threshold="1">
      <Baseline>
        <GaussianDistribution mean="20.0" variance="19.8976" />
      </Baseline>
      <Segments>
        <ExplicitSegment field="queue" value="280" />
      </Segments>
    </TestDistributions>
    <TestDistributions field="lstQueuedList" testStatistic="zValue" testType="threshold" threshold="1">
      <Baseline>
        <GaussianDistribution mean="20.0" variance="19.8976" />
      </Baseline>
      <Segments>
        <ExplicitSegment field="queue" value="281" />
      </Segments>
    </TestDistributions>
    <TestDistributions field="lstQueuedList" testStatistic="zValue" testType="threshold" threshold="1">
      <Baseline>
        <GaussianDistribution mean="20.0" variance="19.8976" />
      </Baseline>
      <Segments>
        <ExplicitSegment field="queue" value="282" />
      </Segments>
    </TestDistributions>
    <TestDistributions field="lstQueuedList" testStatistic="zValue" testType="threshold" threshold="1">
      <Baseline>
        <GaussianDistribution mean="20.0" variance="19.8976" />
      </Baseline>
      <Segments>
        <ExplicitSegment field="queue" value="283" />
      </Segments>
    </TestDistributions>
    <TestDistributions field="lstQueuedList" testStatistic="zValue" testType="threshold" threshold="1">
      <Baseline>
        <GaussianDistribution mean="20.0" variance="19.8976" />
      </Baseline>
      <Segments>
        <ExplicitSegment field="queue" value="284" />
      </Segments>
    </TestDistributions>
    <TestDistributions field="lstQueuedList" testStatistic="zValue" testType="threshold" threshold="1">
      <Baseline>
        <GaussianDistribution mean="20.0" variance="19.8976" />
      </Baseline>
      <Segments>
        <ExplicitSegment field="queue" value="285" />
      </Segments>
    </TestDistributions>
    <TestDistributions field="lstQueuedList" testStatistic="zValue" testType="threshold" threshold="1">
      <Baseline>
        <GaussianDistribution mean="20.0" variance="19.8976" />
      </Baseline>
      <Segments>
        <ExplicitSegment field="queue" value="286" />
      </Segments>
    </TestDistributions>
    <TestDistributions field="lstQueuedList" testStatistic="zValue" testType="threshold" threshold="1">
      <Baseline>
        <GaussianDistribution mean="20.0" variance="19.8976" />
      </Baseline>
      <Segments>
        <ExplicitSegment field="queue" value="287" />
      </Segments>
    </TestDistributions>
    <TestDistributions field="lstQueuedList" testStatistic="zValue" testType="threshold" threshold="1">
      <Baseline>
        <GaussianDistribution mean="20.0" variance="19.8976" />
      </Baseline>
      <Segments>
        <ExplicitSegment field="queue" value="288" />
      </Segments>
    </TestDistributions>
    <TestDistributions field="lstQueuedList" testStatistic="zValue" testType="threshold" threshold="1">
      <Baseline>
        <GaussianDistribution mean="20.0" variance="19.8976" />
      </Baseline>
      <Segments>
        <ExplicitSegment field="queue" value="289" />
      </Segments>
    </TestDistributions>
    <TestDistributions field="lstQueuedList" testStatistic="zValue" testType="threshold" threshold="1">
      <Baseline>
        <GaussianDistribution mean="20.0" variance="19.8976" />
      </Baseline>
      <Segments>
        <ExplicitSegment field="queue" value="29" />
      </Segments>
    </TestDistributions>
    <TestDistributions field="lstQueuedList" testStatistic="zValue" testType="threshold" threshold="1">
      <Baseline>
        <GaussianDistribution mean="20.0" variance="19.8976" />
      </Baseline>
      <Segments>
        <ExplicitSegment field="queue" value="290" />
      </Segments>
    </TestDistributions>
    <TestDistributions field="lstQueuedList" testStatistic="zValue" testType="threshold" threshold="1">
      <Baseline>
        <GaussianDistribution mean="20.0" variance="19.8976" />
      </Baseline>
      <Segments>
        <ExplicitSegment field="queue" value="291" />
      </Segments>
    </TestDistributions>
    <TestDistributions field="lstQueuedList" testStatistic="zValue" testType="threshold" threshold="1">
      <Baseline>
        <GaussianDistribution mean="20.0" variance="19.8976" />
      </Baseline>
      <Segments>
        <ExplicitSegment field="queue" value="292" />
      </Segments>
    </TestDistributions>
    <TestDistributions field="lstQueuedList" testStatistic="zValue" testType="threshold" threshold="1">
      <Baseline>
        <GaussianDistribution mean="20.0" variance="19.8976" />
      </Baseline>
      <Segments>
        <ExplicitSegment field="queue" value="293" />
      </Segments>
    </TestDistributions>
    <TestDistributions field="lstQueuedList" testStatistic="zValue" testType="threshold" threshold="1">
      <Baseline>
        <GaussianDistribution mean="20.0" variance="19.8976" />
      </Baseline>
      <Segments>
        <ExplicitSegment field="queue" value="294" />
      </Segments>
    </TestDistributions>
    <TestDistributions field="lstQueuedList" testStatistic="zValue" testType="threshold" threshold="1">
      <Baseline>
        <GaussianDistribution mean="20.0" variance="19.8976" />
      </Baseline>
      <Segments>
        <ExplicitSegment field="queue" value="295" />
      </Segments>
    </TestDistributions>
    <TestDistributions field="lstQueuedList" testStatistic="zValue" testType="threshold" threshold="1">
      <Baseline>
        <GaussianDistribution mean="20.0" variance="19.8976" />
      </Baseline>
      <Segments>
        <ExplicitSegment field="queue" value="296" />
      </Segments>
    </TestDistributions>
    <TestDistributions field="lstQueuedList" testStatistic="zValue" testType="threshold" threshold="1">
      <Baseline>
        <GaussianDistribution mean="20.0" variance="19.8976" />
      </Baseline>
      <Segments>
        <ExplicitSegment field="queue" value="297" />
      </Segments>
    </TestDistributions>
    <TestDistributions field="lstQueuedList" testStatistic="zValue" testType="threshold" threshold="1">
      <Baseline>
        <GaussianDistribution mean="20.0" variance="19.8976" />
      </Baseline>
      <Segments>
        <ExplicitSegment field="queue" value="298" />
      </Segments>
    </TestDistributions>
    <TestDistributions field="lstQueuedList" testStatistic="zValue" testType="threshold" threshold="1">
      <Baseline>
        <GaussianDistribution mean="20.0" variance="19.8976" />
      </Baseline>
      <Segments>
        <ExplicitSegment field="queue" value="299" />
      </Segments>
    </TestDistributions>
    <TestDistributions field="lstQueuedList" testStatistic="zValue" testType="threshold" threshold="1">
      <Baseline>
        <GaussianDistribution mean="20.0" variance="19.8976" />
      </Baseline>
      <Segments>
        <ExplicitSegment field="queue" value="3" />
      </Segments>
    </TestDistributions>
    <TestDistributions field="lstQueuedList" testStatistic="zValue" testType="threshold" threshold="1">
      <Baseline>
        <GaussianDistribution mean="20.0" variance="19.8976" />
      </Baseline>
      <Segments>
        <ExplicitSegment field="queue" value="30" />
      </Segments>
    </TestDistributions>
    <TestDistributions field="lstQueuedList" testStatistic="zValue" testType="threshold" threshold="1">
      <Baseline>
        <GaussianDistribution mean="20.0" variance="19.8976" />
      </Baseline>
      <Segments>
        <ExplicitSegment field="queue" value="300" />
      </Segments>
    </TestDistributions>
    <TestDistributions field="lstQueuedList" testStatistic="zValue" testType="threshold" threshold="1">
      <Baseline>
        <GaussianDistribution mean="20.0" variance="19.8976" />
      </Baseline>
      <Segments>
        <ExplicitSegment field="queue" value="301" />
      </Segments>
    </TestDistributions>
    <TestDistributions field="lstQueuedList" testStatistic="zValue" testType="threshold" threshold="1">
      <Baseline>
        <GaussianDistribution mean="20.0" variance="19.8976" />
      </Baseline>
      <Segments>
        <ExplicitSegment field="queue" value="302" />
      </Segments>
    </TestDistributions>
    <TestDistributions field="lstQueuedList" testStatistic="zValue" testType="threshold" threshold="1">
      <Baseline>
        <GaussianDistribution mean="20.0" variance="19.8976" />
      </Baseline>
      <Segments>
        <ExplicitSegment field="queue" value="303" />
      </Segments>
    </TestDistributions>
    <TestDistributions field="lstQueuedList" testStatistic="zValue" testType="threshold" threshold="1">
      <Baseline>
        <GaussianDistribution mean="20.0" variance="19.8976" />
      </Baseline>
      <Segments>
        <ExplicitSegment field="queue" value="304" />
      </Segments>
    </TestDistributions>
    <TestDistributions field="lstQueuedList" testStatistic="zValue" testType="threshold" threshold="1">
      <Baseline>
        <GaussianDistribution mean="20.0" variance="19.8976" />
      </Baseline>
      <Segments>
        <ExplicitSegment field="queue" value="305" />
      </Segments>
    </TestDistributions>
    <TestDistributions field="lstQueuedList" testStatistic="zValue" testType="threshold" threshold="1">
      <Baseline>
        <GaussianDistribution mean="20.0" variance="19.8976" />
      </Baseline>
      <Segments>
        <ExplicitSegment field="queue" value="306" />
      </Segments>
    </TestDistributions>
    <TestDistributions field="lstQueuedList" testStatistic="zValue" testType="threshold" threshold="1">
      <Baseline>
        <GaussianDistribution mean="20.0" variance="19.8976" />
      </Baseline>
      <Segments>
        <ExplicitSegment field="queue" value="307" />
      </Segments>
    </TestDistributions>
    <TestDistributions field="lstQueuedList" testStatistic="zValue" testType="threshold" threshold="1">
      <Baseline>
        <GaussianDistribution mean="20.0" variance="19.8976" />
      </Baseline>
      <Segments>
        <ExplicitSegment field="queue" value="308" />
      </Segments>
    </TestDistributions>
    <TestDistributions field="lstQueuedList" testStatistic="zValue" testType="threshold" threshold="1">
      <Baseline>
        <GaussianDistribution mean="20.0" variance="19.8976" />
      </Baseline>
      <Segments>
        <ExplicitSegment field="queue" value="309" />
      </Segments>
    </TestDistributions>
    <TestDistributions field="lstQueuedList" testStatistic="zValue" testType="threshold" threshold="1">
      <Baseline>
        <GaussianDistribution mean="20.0" variance="19.8976" />
      </Baseline>
      <Segments>
        <ExplicitSegment field="queue" value="31" />
      </Segments>
    </TestDistributions>
    <TestDistributions field="lstQueuedList" testStatistic="zValue" testType="threshold" threshold="1">
      <Baseline>
        <GaussianDistribution mean="20.0" variance="19.8976" />
      </Baseline>
      <Segments>
        <ExplicitSegment field="queue" value="310" />
      </Segments>
    </TestDistributions>
    <TestDistributions field="lstQueuedList" testStatistic="zValue" testType="threshold" threshold="1">
      <Baseline>
        <GaussianDistribution mean="20.0" variance="19.8976" />
      </Baseline>
      <Segments>
        <ExplicitSegment field="queue" value="311" />
      </Segments>
    </TestDistributions>
    <TestDistributions field="lstQueuedList" testStatistic="zValue" testType="threshold" threshold="1">
      <Baseline>
        <GaussianDistribution mean="20.0" variance="19.8976" />
      </Baseline>
      <Segments>
        <ExplicitSegment field="queue" value="312" />
      </Segments>
    </TestDistributions>
    <TestDistributions field="lstQueuedList" testStatistic="zValue" testType="threshold" threshold="1">
      <Baseline>
        <GaussianDistribution mean="20.0" variance="19.8976" />
      </Baseline>
      <Segments>
        <ExplicitSegment field="queue" value="313" />
      </Segments>
    </TestDistributions>
    <TestDistributions field="lstQueuedList" testStatistic="zValue" testType="threshold" threshold="1">
      <Baseline>
        <GaussianDistribution mean="20.0" variance="19.8976" />
      </Baseline>
      <Segments>
        <ExplicitSegment field="queue" value="314" />
      </Segments>
    </TestDistributions>
    <TestDistributions field="lstQueuedList" testStatistic="zValue" testType="threshold" threshold="1">
      <Baseline>
        <GaussianDistribution mean="20.0" variance="19.8976" />
      </Baseline>
      <Segments>
        <ExplicitSegment field="queue" value="315" />
      </Segments>
    </TestDistributions>
    <TestDistributions field="lstQueuedList" testStatistic="zValue" testType="threshold" threshold="1">
      <Baseline>
        <GaussianDistribution mean="20.0" variance="19.8976" />
      </Baseline>
      <Segments>
        <ExplicitSegment field="queue" value="316" />
      </Segments>
    </TestDistributions>
    <TestDistributions field="lstQueuedList" testStatistic="zValue" testType="threshold" threshold="1">
      <Baseline>
        <GaussianDistribution mean="20.0" variance="19.8976" />
      </Baseline>
      <Segments>
        <ExplicitSegment field="queue" value="317" />
      </Segments>
    </TestDistributions>
    <TestDistributions field="lstQueuedList" testStatistic="zValue" testType="threshold" threshold="1">
      <Baseline>
        <GaussianDistribution mean="20.0" variance="19.8976" />
      </Baseline>
      <Segments>
        <ExplicitSegment field="queue" value="318" />
      </Segments>
    </TestDistributions>
    <TestDistributions field="lstQueuedList" testStatistic="zValue" testType="threshold" threshold="1">
      <Baseline>
        <GaussianDistribution mean="20.0" variance="19.8976" />
      </Baseline>
      <Segments>
        <ExplicitSegment field="queue" value="319" />
      </Segments>
    </TestDistributions>
    <TestDistributions field="lstQueuedList" testStatistic="zValue" testType="threshold" threshold="1">
      <Baseline>
        <GaussianDistribution mean="20.0" variance="19.8976" />
      </Baseline>
      <Segments>
        <ExplicitSegment field="queue" value="32" />
      </Segments>
    </TestDistributions>
    <TestDistributions field="lstQueuedList" testStatistic="zValue" testType="threshold" threshold="1">
      <Baseline>
        <GaussianDistribution mean="20.0" variance="19.8976" />
      </Baseline>
      <Segments>
        <ExplicitSegment field="queue" value="320" />
      </Segments>
    </TestDistributions>
    <TestDistributions field="lstQueuedList" testStatistic="zValue" testType="threshold" threshold="1">
      <Baseline>
        <GaussianDistribution mean="20.0" variance="19.8976" />
      </Baseline>
      <Segments>
        <ExplicitSegment field="queue" value="321" />
      </Segments>
    </TestDistributions>
    <TestDistributions field="lstQueuedList" testStatistic="zValue" testType="threshold" threshold="1">
      <Baseline>
        <GaussianDistribution mean="20.0" variance="19.8976" />
      </Baseline>
      <Segments>
        <ExplicitSegment field="queue" value="322" />
      </Segments>
    </TestDistributions>
    <TestDistributions field="lstQueuedList" testStatistic="zValue" testType="threshold" threshold="1">
      <Baseline>
        <GaussianDistribution mean="20.0" variance="19.8976" />
      </Baseline>
      <Segments>
        <ExplicitSegment field="queue" value="323" />
      </Segments>
    </TestDistributions>
    <TestDistributions field="lstQueuedList" testStatistic="zValue" testType="threshold" threshold="1">
      <Baseline>
        <GaussianDistribution mean="20.0" variance="19.8976" />
      </Baseline>
      <Segments>
        <ExplicitSegment field="queue" value="324" />
      </Segments>
    </TestDistributions>
    <TestDistributions field="lstQueuedList" testStatistic="zValue" testType="threshold" threshold="1">
      <Baseline>
        <GaussianDistribution mean="20.0" variance="19.8976" />
      </Baseline>
      <Segments>
        <ExplicitSegment field="queue" value="325" />
      </Segments>
    </TestDistributions>
    <TestDistributions field="lstQueuedList" testStatistic="zValue" testType="threshold" threshold="1">
      <Baseline>
        <GaussianDistribution mean="20.0" variance="19.8976" />
      </Baseline>
      <Segments>
        <ExplicitSegment field="queue" value="326" />
      </Segments>
    </TestDistributions>
    <TestDistributions field="lstQueuedList" testStatistic="zValue" testType="threshold" threshold="1">
      <Baseline>
        <GaussianDistribution mean="20.0" variance="19.8976" />
      </Baseline>
      <Segments>
        <ExplicitSegment field="queue" value="327" />
      </Segments>
    </TestDistributions>
    <TestDistributions field="lstQueuedList" testStatistic="zValue" testType="threshold" threshold="1">
      <Baseline>
        <GaussianDistribution mean="20.0" variance="19.8976" />
      </Baseline>
      <Segments>
        <ExplicitSegment field="queue" value="328" />
      </Segments>
    </TestDistributions>
    <TestDistributions field="lstQueuedList" testStatistic="zValue" testType="threshold" threshold="1">
      <Baseline>
        <GaussianDistribution mean="20.0" variance="19.8976" />
      </Baseline>
      <Segments>
        <ExplicitSegment field="queue" value="329" />
      </Segments>
    </TestDistributions>
    <TestDistributions field="lstQueuedList" testStatistic="zValue" testType="threshold" threshold="1">
      <Baseline>
        <GaussianDistribution mean="20.0" variance="19.8976" />
      </Baseline>
      <Segments>
        <ExplicitSegment field="queue" value="33" />
      </Segments>
    </TestDistributions>
    <TestDistributions field="lstQueuedList" testStatistic="zValue" testType="threshold" threshold="1">
      <Baseline>
        <GaussianDistribution mean="20.0" variance="19.8976" />
      </Baseline>
      <Segments>
        <ExplicitSegment field="queue" value="330" />
      </Segments>
    </TestDistributions>
    <TestDistributions field="lstQueuedList" testStatistic="zValue" testType="threshold" threshold="1">
      <Baseline>
        <GaussianDistribution mean="20.0" variance="19.8976" />
      </Baseline>
      <Segments>
        <ExplicitSegment field="queue" value="331" />
      </Segments>
    </TestDistributions>
    <TestDistributions field="lstQueuedList" testStatistic="zValue" testType="threshold" threshold="1">
      <Baseline>
        <GaussianDistribution mean="20.0" variance="19.8976" />
      </Baseline>
      <Segments>
        <ExplicitSegment field="queue" value="332" />
      </Segments>
    </TestDistributions>
    <TestDistributions field="lstQueuedList" testStatistic="zValue" testType="threshold" threshold="1">
      <Baseline>
        <GaussianDistribution mean="20.0" variance="19.8976" />
      </Baseline>
      <Segments>
        <ExplicitSegment field="queue" value="333" />
      </Segments>
    </TestDistributions>
    <TestDistributions field="lstQueuedList" testStatistic="zValue" testType="threshold" threshold="1">
      <Baseline>
        <GaussianDistribution mean="20.0" variance="19.8976" />
      </Baseline>
      <Segments>
        <ExplicitSegment field="queue" value="334" />
      </Segments>
    </TestDistributions>
    <TestDistributions field="lstQueuedList" testStatistic="zValue" testType="threshold" threshold="1">
      <Baseline>
        <GaussianDistribution mean="20.0" variance="19.8976" />
      </Baseline>
      <Segments>
        <ExplicitSegment field="queue" value="335" />
      </Segments>
    </TestDistributions>
    <TestDistributions field="lstQueuedList" testStatistic="zValue" testType="threshold" threshold="1">
      <Baseline>
        <GaussianDistribution mean="20.0" variance="19.8976" />
      </Baseline>
      <Segments>
        <ExplicitSegment field="queue" value="336" />
      </Segments>
    </TestDistributions>
    <TestDistributions field="lstQueuedList" testStatistic="zValue" testType="threshold" threshold="1">
      <Baseline>
        <GaussianDistribution mean="20.0" variance="19.8976" />
      </Baseline>
      <Segments>
        <ExplicitSegment field="queue" value="337" />
      </Segments>
    </TestDistributions>
    <TestDistributions field="lstQueuedList" testStatistic="zValue" testType="threshold" threshold="1">
      <Baseline>
        <GaussianDistribution mean="20.0" variance="19.8976" />
      </Baseline>
      <Segments>
        <ExplicitSegment field="queue" value="338" />
      </Segments>
    </TestDistributions>
    <TestDistributions field="lstQueuedList" testStatistic="zValue" testType="threshold" threshold="1">
      <Baseline>
        <GaussianDistribution mean="20.0" variance="19.8976" />
      </Baseline>
      <Segments>
        <ExplicitSegment field="queue" value="339" />
      </Segments>
    </TestDistributions>
    <TestDistributions field="lstQueuedList" testStatistic="zValue" testType="threshold" threshold="1">
      <Baseline>
        <GaussianDistribution mean="20.0" variance="19.8976" />
      </Baseline>
      <Segments>
        <ExplicitSegment field="queue" value="34" />
      </Segments>
    </TestDistributions>
    <TestDistributions field="lstQueuedList" testStatistic="zValue" testType="threshold" threshold="1">
      <Baseline>
        <GaussianDistribution mean="20.0" variance="19.8976" />
      </Baseline>
      <Segments>
        <ExplicitSegment field="queue" value="340" />
      </Segments>
    </TestDistributions>
    <TestDistributions field="lstQueuedList" testStatistic="zValue" testType="threshold" threshold="1">
      <Baseline>
        <GaussianDistribution mean="20.0" variance="19.8976" />
      </Baseline>
      <Segments>
        <ExplicitSegment field="queue" value="341" />
      </Segments>
    </TestDistributions>
    <TestDistributions field="lstQueuedList" testStatistic="zValue" testType="threshold" threshold="1">
      <Baseline>
        <GaussianDistribution mean="20.0" variance="19.8976" />
      </Baseline>
      <Segments>
        <ExplicitSegment field="queue" value="342" />
      </Segments>
    </TestDistributions>
    <TestDistributions field="lstQueuedList" testStatistic="zValue" testType="threshold" threshold="1">
      <Baseline>
        <GaussianDistribution mean="20.0" variance="19.8976" />
      </Baseline>
      <Segments>
        <ExplicitSegment field="queue" value="343" />
      </Segments>
    </TestDistributions>
    <TestDistributions field="lstQueuedList" testStatistic="zValue" testType="threshold" threshold="1">
      <Baseline>
        <GaussianDistribution mean="20.0" variance="19.8976" />
      </Baseline>
      <Segments>
        <ExplicitSegment field="queue" value="344" />
      </Segments>
    </TestDistributions>
    <TestDistributions field="lstQueuedList" testStatistic="zValue" testType="threshold" threshold="1">
      <Baseline>
        <GaussianDistribution mean="20.0" variance="19.8976" />
      </Baseline>
      <Segments>
        <ExplicitSegment field="queue" value="345" />
      </Segments>
    </TestDistributions>
    <TestDistributions field="lstQueuedList" testStatistic="zValue" testType="threshold" threshold="1">
      <Baseline>
        <GaussianDistribution mean="20.0" variance="19.8976" />
      </Baseline>
      <Segments>
        <ExplicitSegment field="queue" value="346" />
      </Segments>
    </TestDistributions>
    <TestDistributions field="lstQueuedList" testStatistic="zValue" testType="threshold" threshold="1">
      <Baseline>
        <GaussianDistribution mean="20.0" variance="19.8976" />
      </Baseline>
      <Segments>
        <ExplicitSegment field="queue" value="347" />
      </Segments>
    </TestDistributions>
    <TestDistributions field="lstQueuedList" testStatistic="zValue" testType="threshold" threshold="1">
      <Baseline>
        <GaussianDistribution mean="20.0" variance="19.8976" />
      </Baseline>
      <Segments>
        <ExplicitSegment field="queue" value="348" />
      </Segments>
    </TestDistributions>
    <TestDistributions field="lstQueuedList" testStatistic="zValue" testType="threshold" threshold="1">
      <Baseline>
        <GaussianDistribution mean="20.0" variance="19.8976" />
      </Baseline>
      <Segments>
        <ExplicitSegment field="queue" value="349" />
      </Segments>
    </TestDistributions>
    <TestDistributions field="lstQueuedList" testStatistic="zValue" testType="threshold" threshold="1">
      <Baseline>
        <GaussianDistribution mean="20.0" variance="19.8976" />
      </Baseline>
      <Segments>
        <ExplicitSegment field="queue" value="35" />
      </Segments>
    </TestDistributions>
    <TestDistributions field="lstQueuedList" testStatistic="zValue" testType="threshold" threshold="1">
      <Baseline>
        <GaussianDistribution mean="20.0" variance="19.8976" />
      </Baseline>
      <Segments>
        <ExplicitSegment field="queue" value="350" />
      </Segments>
    </TestDistributions>
    <TestDistributions field="lstQueuedList" testStatistic="zValue" testType="threshold" threshold="1">
      <Baseline>
        <GaussianDistribution mean="20.0" variance="19.8976" />
      </Baseline>
      <Segments>
        <ExplicitSegment field="queue" value="351" />
      </Segments>
    </TestDistributions>
    <TestDistributions field="lstQueuedList" testStatistic="zValue" testType="threshold" threshold="1">
      <Baseline>
        <GaussianDistribution mean="20.0" variance="19.8976" />
      </Baseline>
      <Segments>
        <ExplicitSegment field="queue" value="352" />
      </Segments>
    </TestDistributions>
    <TestDistributions field="lstQueuedList" testStatistic="zValue" testType="threshold" threshold="1">
      <Baseline>
        <GaussianDistribution mean="20.0" variance="19.8976" />
      </Baseline>
      <Segments>
        <ExplicitSegment field="queue" value="353" />
      </Segments>
    </TestDistributions>
    <TestDistributions field="lstQueuedList" testStatistic="zValue" testType="threshold" threshold="1">
      <Baseline>
        <GaussianDistribution mean="20.0" variance="19.8976" />
      </Baseline>
      <Segments>
        <ExplicitSegment field="queue" value="354" />
      </Segments>
    </TestDistributions>
    <TestDistributions field="lstQueuedList" testStatistic="zValue" testType="threshold" threshold="1">
      <Baseline>
        <GaussianDistribution mean="20.0" variance="19.8976" />
      </Baseline>
      <Segments>
        <ExplicitSegment field="queue" value="355" />
      </Segments>
    </TestDistributions>
    <TestDistributions field="lstQueuedList" testStatistic="zValue" testType="threshold" threshold="1">
      <Baseline>
        <GaussianDistribution mean="20.0" variance="19.8976" />
      </Baseline>
      <Segments>
        <ExplicitSegment field="queue" value="356" />
      </Segments>
    </TestDistributions>
    <TestDistributions field="lstQueuedList" testStatistic="zValue" testType="threshold" threshold="1">
      <Baseline>
        <GaussianDistribution mean="20.0" variance="19.8976" />
      </Baseline>
      <Segments>
        <ExplicitSegment field="queue" value="357" />
      </Segments>
    </TestDistributions>
    <TestDistributions field="lstQueuedList" testStatistic="zValue" testType="threshold" threshold="1">
      <Baseline>
        <GaussianDistribution mean="20.0" variance="19.8976" />
      </Baseline>
      <Segments>
        <ExplicitSegment field="queue" value="358" />
      </Segments>
    </TestDistributions>
    <TestDistributions field="lstQueuedList" testStatistic="zValue" testType="threshold" threshold="1">
      <Baseline>
        <GaussianDistribution mean="20.0" variance="19.8976" />
      </Baseline>
      <Segments>
        <ExplicitSegment field="queue" value="359" />
      </Segments>
    </TestDistributions>
    <TestDistributions field="lstQueuedList" testStatistic="zValue" testType="threshold" threshold="1">
      <Baseline>
        <GaussianDistribution mean="20.0" variance="19.8976" />
      </Baseline>
      <Segments>
        <ExplicitSegment field="queue" value="36" />
      </Segments>
    </TestDistributions>
    <TestDistributions field="lstQueuedList" testStatistic="zValue" testType="threshold" threshold="1">
      <Baseline>
        <GaussianDistribution mean="20.0" variance="19.8976" />
      </Baseline>
      <Segments>
        <ExplicitSegment field="queue" value="360" />
      </Segments>
    </TestDistributions>
    <TestDistributions field="lstQueuedList" testStatistic="zValue" testType="threshold" threshold="1">
      <Baseline>
        <GaussianDistribution mean="20.0" variance="19.8976" />
      </Baseline>
      <Segments>
        <ExplicitSegment field="queue" value="361" />
      </Segments>
    </TestDistributions>
    <TestDistributions field="lstQueuedList" testStatistic="zValue" testType="threshold" threshold="1">
      <Baseline>
        <GaussianDistribution mean="20.0" variance="19.8976" />
      </Baseline>
      <Segments>
        <ExplicitSegment field="queue" value="362" />
      </Segments>
    </TestDistributions>
    <TestDistributions field="lstQueuedList" testStatistic="zValue" testType="threshold" threshold="1">
      <Baseline>
        <GaussianDistribution mean="20.0" variance="19.8976" />
      </Baseline>
      <Segments>
        <ExplicitSegment field="queue" value="363" />
      </Segments>
    </TestDistributions>
    <TestDistributions field="lstQueuedList" testStatistic="zValue" testType="threshold" threshold="1">
      <Baseline>
        <GaussianDistribution mean="20.0" variance="19.8976" />
      </Baseline>
      <Segments>
        <ExplicitSegment field="queue" value="364" />
      </Segments>
    </TestDistributions>
    <TestDistributions field="lstQueuedList" testStatistic="zValue" testType="threshold" threshold="1">
      <Baseline>
        <GaussianDistribution mean="20.0" variance="19.8976" />
      </Baseline>
      <Segments>
        <ExplicitSegment field="queue" value="365" />
      </Segments>
    </TestDistributions>
    <TestDistributions field="lstQueuedList" testStatistic="zValue" testType="threshold" threshold="1">
      <Baseline>
        <GaussianDistribution mean="20.0" variance="19.8976" />
      </Baseline>
      <Segments>
        <ExplicitSegment field="queue" value="366" />
      </Segments>
    </TestDistributions>
    <TestDistributions field="lstQueuedList" testStatistic="zValue" testType="threshold" threshold="1">
      <Baseline>
        <GaussianDistribution mean="20.0" variance="19.8976" />
      </Baseline>
      <Segments>
        <ExplicitSegment field="queue" value="367" />
      </Segments>
    </TestDistributions>
    <TestDistributions field="lstQueuedList" testStatistic="zValue" testType="threshold" threshold="1">
      <Baseline>
        <GaussianDistribution mean="20.0" variance="19.8976" />
      </Baseline>
      <Segments>
        <ExplicitSegment field="queue" value="368" />
      </Segments>
    </TestDistributions>
    <TestDistributions field="lstQueuedList" testStatistic="zValue" testType="threshold" threshold="1">
      <Baseline>
        <GaussianDistribution mean="20.0" variance="19.8976" />
      </Baseline>
      <Segments>
        <ExplicitSegment field="queue" value="369" />
      </Segments>
    </TestDistributions>
    <TestDistributions field="lstQueuedList" testStatistic="zValue" testType="threshold" threshold="1">
      <Baseline>
        <GaussianDistribution mean="20.0" variance="19.8976" />
      </Baseline>
      <Segments>
        <ExplicitSegment field="queue" value="37" />
      </Segments>
    </TestDistributions>
    <TestDistributions field="lstQueuedList" testStatistic="zValue" testType="threshold" threshold="1">
      <Baseline>
        <GaussianDistribution mean="20.0" variance="19.8976" />
      </Baseline>
      <Segments>
        <ExplicitSegment field="queue" value="370" />
      </Segments>
    </TestDistributions>
    <TestDistributions field="lstQueuedList" testStatistic="zValue" testType="threshold" threshold="1">
      <Baseline>
        <GaussianDistribution mean="20.0" variance="19.8976" />
      </Baseline>
      <Segments>
        <ExplicitSegment field="queue" value="371" />
      </Segments>
    </TestDistributions>
    <TestDistributions field="lstQueuedList" testStatistic="zValue" testType="threshold" threshold="1">
      <Baseline>
        <GaussianDistribution mean="20.0" variance="19.8976" />
      </Baseline>
      <Segments>
        <ExplicitSegment field="queue" value="372" />
      </Segments>
    </TestDistributions>
    <TestDistributions field="lstQueuedList" testStatistic="zValue" testType="threshold" threshold="1">
      <Baseline>
        <GaussianDistribution mean="20.0" variance="19.8976" />
      </Baseline>
      <Segments>
        <ExplicitSegment field="queue" value="373" />
      </Segments>
    </TestDistributions>
    <TestDistributions field="lstQueuedList" testStatistic="zValue" testType="threshold" threshold="1">
      <Baseline>
        <GaussianDistribution mean="20.0" variance="19.8976" />
      </Baseline>
      <Segments>
        <ExplicitSegment field="queue" value="374" />
      </Segments>
    </TestDistributions>
    <TestDistributions field="lstQueuedList" testStatistic="zValue" testType="threshold" threshold="1">
      <Baseline>
        <GaussianDistribution mean="20.0" variance="19.8976" />
      </Baseline>
      <Segments>
